<?xml version="1.0"?>
<opencv_storage>
<cascade>
  <stageType>BOOST</stageType>
  <featureType>HAAR</featureType>
  <height>24</height>
  <width>24</width>
  <stageParams>
    <boostType>GAB</boostType>
    <minHitRate>9.9500000476837158e-01</minHitRate>
    <maxFalseAlarm>5.0000000000000000e-01</maxFalseAlarm>
    <weightTrimRate>9.4999999999999996e-01</weightTrimRate>
    <maxDepth>1</maxDepth>
    <maxWeakCount>100</maxWeakCount></stageParams>
  <featureParams>
    <maxCatCount>0</maxCatCount>
    <featSize>1</featSize>
    <mode>BASIC</mode></featureParams>
  <stageNum>18</stageNum>
  <stages>
    <!-- stage 0 -->
    <_>
      <maxWeakCount>2</maxWeakCount>
      <stageThreshold>-5.3636008501052856e-01</stageThreshold>
      <weakClassifiers>
        <_>
          <internalNodes>
            0 -1 29 -2.7919089794158936e-01</internalNodes>
          <leafValues>
            6.4383560419082642e-01 -9.4791668653488159e-01</leafValues></_>
        <_>
          <internalNodes>
            0 -1 37 -3.2915700227022171e-02</internalNodes>
          <leafValues>
            -9.7379922866821289e-01 4.1155657172203064e-01</leafValues></_></weakClassifiers></_>
    <!-- stage 1 -->
    <_>
      <maxWeakCount>2</maxWeakCount>
      <stageThreshold>-7.2260922193527222e-01</stageThreshold>
      <weakClassifiers>
        <_>
          <internalNodes>
            0 -1 56 2.4448271840810776e-02</internalNodes>
          <leafValues>
            -8.9772725105285645e-01 2.5842696428298950e-01</leafValues></_>
        <_>
          <internalNodes>
            0 -1 23 -1.2351603806018829e-01</internalNodes>
          <leafValues>
            3.6391305923461914e-01 -9.8103618621826172e-01</leafValues></_></weakClassifiers></_>
    <!-- stage 2 -->
    <_>
      <maxWeakCount>4</maxWeakCount>
      <stageThreshold>-7.1761578321456909e-01</stageThreshold>
      <weakClassifiers>
        <_>
          <internalNodes>
            0 -1 45 7.1473028510808945e-03</internalNodes>
          <leafValues>
            -8.3419686555862427e-01 3.6111110448837280e-01</leafValues></_>
        <_>
          <internalNodes>
            0 -1 38 -3.7674222141504288e-02</internalNodes>
          <leafValues>
            5.3999048471450806e-01 -7.1120148897171021e-01</leafValues></_>
        <_>
          <internalNodes>
            0 -1 40 -1.4364912640303373e-03</internalNodes>
          <leafValues>
            4.4162949919700623e-01 -8.5471743345260620e-01</leafValues></_>
        <_>
          <internalNodes>
            0 -1 58 -1.0444851359352469e-03</internalNodes>
          <leafValues>
            4.8719206452369690e-01 -7.7574741840362549e-01</leafValues></_></weakClassifiers></_>
    <!-- stage 3 -->
    <_>
      <maxWeakCount>3</maxWeakCount>
      <stageThreshold>-9.9527227878570557e-01</stageThreshold>
      <weakClassifiers>
        <_>
          <internalNodes>
            0 -1 25 6.4265996217727661e-02</internalNodes>
          <leafValues>
            -7.5000000000000000e-01 5.5102038383483887e-01</leafValues></_>
        <_>
          <internalNodes>
            0 -1 31 -4.8186559230089188e-02</internalNodes>
          <leafValues>
            -9.2770582437515259e-01 3.5268700122833252e-01</leafValues></_>
        <_>
          <internalNodes>
            0 -1 65 1.7385447397828102e-02</internalNodes>
          <leafValues>
            -5.9795928001403809e-01 7.3478513956069946e-01</leafValues></_></weakClassifiers></_>
    <!-- stage 4 -->
    <_>
      <maxWeakCount>4</maxWeakCount>
      <stageThreshold>-9.8263239860534668e-01</stageThreshold>
      <weakClassifiers>
        <_>
          <internalNodes>
            0 -1 28 -3.3422935009002686e-01</internalNodes>
          <leafValues>
            6.3063062727451324e-02 -9.2207789421081543e-01</leafValues></_>
        <_>
          <internalNodes>
            0 -1 33 7.4064265936613083e-03</internalNodes>
          <leafValues>
            -6.7888230085372925e-01 6.0067242383956909e-01</leafValues></_>
        <_>
          <internalNodes>
            0 -1 8 -2.4594832211732864e-02</internalNodes>
          <leafValues>
            5.3413510322570801e-01 -7.3225980997085571e-01</leafValues></_>
        <_>
          <internalNodes>
            0 -1 22 -1.8952792882919312e-01</internalNodes>
          <leafValues>
            3.6544659733772278e-01 -9.8199665546417236e-01</leafValues></_></weakClassifiers></_>
    <!-- stage 5 -->
    <_>
      <maxWeakCount>4</maxWeakCount>
      <stageThreshold>-1.1493040323257446e+00</stageThreshold>
      <weakClassifiers>
        <_>
          <internalNodes>
            0 -1 5 -6.8655260838568211e-03</internalNodes>
          <leafValues>
            5.9999998658895493e-02 -8.5454547405242920e-01</leafValues></_>
        <_>
          <internalNodes>
            0 -1 44 -7.5781404972076416e-02</internalNodes>
          <leafValues>
            -9.1648602485656738e-01 2.0024353265762329e-01</leafValues></_>
        <_>
          <internalNodes>
            0 -1 52 1.5259929001331329e-02</internalNodes>
          <leafValues>
            -7.7951151132583618e-01 4.1755402088165283e-01</leafValues></_>
        <_>
          <internalNodes>
            0 -1 12 -1.0604257881641388e-01</internalNodes>
          <leafValues>
            2.8450939059257507e-01 -9.6766567230224609e-01</leafValues></_></weakClassifiers></_>
    <!-- stage 6 -->
    <_>
      <maxWeakCount>4</maxWeakCount>
      <stageThreshold>-1.0233590602874756e+00</stageThreshold>
      <weakClassifiers>
        <_>
          <internalNodes>
            0 -1 15 1.0134431533515453e-02</internalNodes>
          <leafValues>
            -7.1040725708007813e-01 5.0000000000000000e-01</leafValues></_>
        <_>
          <internalNodes>
            0 -1 0 -1.8235940486192703e-02</internalNodes>
          <leafValues>
            -9.2368698120117188e-01 2.9980286955833435e-01</leafValues></_>
        <_>
          <internalNodes>
            0 -1 13 -4.5131140947341919e-01</internalNodes>
          <leafValues>
            -8.0075645446777344e-01 3.1868144869804382e-01</leafValues></_>
        <_>
          <internalNodes>
            0 -1 68 -4.0260730311274529e-03</internalNodes>
          <leafValues>
            2.9205375909805298e-01 -9.3100172281265259e-01</leafValues></_></weakClassifiers></_>
    <!-- stage 7 -->
    <_>
      <maxWeakCount>4</maxWeakCount>
      <stageThreshold>-1.4989300966262817e+00</stageThreshold>
      <weakClassifiers>
        <_>
          <internalNodes>
            0 -1 7 -2.0318437367677689e-02</internalNodes>
          <leafValues>
            4.4186046719551086e-01 -6.9369369745254517e-01</leafValues></_>
        <_>
          <internalNodes>
            0 -1 50 -1.5533016994595528e-02</internalNodes>
          <leafValues>
            -6.7359763383865356e-01 4.2252677679061890e-01</leafValues></_>
        <_>
          <internalNodes>
            0 -1 51 -2.5301522109657526e-03</internalNodes>
          <leafValues>
            3.9645528793334961e-01 -6.1978036165237427e-01</leafValues></_>
        <_>
          <internalNodes>
            0 -1 61 1.5912344679236412e-02</internalNodes>
          <leafValues>
            -6.0798275470733643e-01 3.4559148550033569e-01</leafValues></_></weakClassifiers></_>
    <!-- stage 8 -->
    <_>
      <maxWeakCount>3</maxWeakCount>
      <stageThreshold>-7.3090094327926636e-01</stageThreshold>
      <weakClassifiers>
        <_>
          <internalNodes>
            0 -1 11 -7.2945672273635864e-01</internalNodes>
          <leafValues>
            -9.0909093618392944e-02 -9.2481201887130737e-01</leafValues></_>
        <_>
          <internalNodes>
            0 -1 36 -5.6654615327715874e-03</internalNodes>
          <leafValues>
            -8.1700557470321655e-01 1.6651463508605957e-01</leafValues></_>
        <_>
          <internalNodes>
            0 -1 3 -3.0470319092273712e-02</internalNodes>
          <leafValues>
            1.7701371014118195e-01 -1.</leafValues></_></weakClassifiers></_>
    <!-- stage 9 -->
    <_>
      <maxWeakCount>2</maxWeakCount>
      <stageThreshold>-8.7513190507888794e-01</stageThreshold>
      <weakClassifiers>
        <_>
          <internalNodes>
            0 -1 2 -3.9156013727188110e-01</internalNodes>
          <leafValues>
            -9.0209788084030151e-01 -4.9180328845977783e-02</leafValues></_>
        <_>
          <internalNodes>
            0 -1 20 -2.8841331601142883e-02</internalNodes>
          <leafValues>
            -8.2595157623291016e-01 1.7961318790912628e-01</leafValues></_></weakClassifiers></_>
    <!-- stage 10 -->
    <_>
      <maxWeakCount>3</maxWeakCount>
      <stageThreshold>-5.9846889972686768e-01</stageThreshold>
      <weakClassifiers>
        <_>
          <internalNodes>
            0 -1 54 4.3505951762199402e-03</internalNodes>
          <leafValues>
            -6.9668245315551758e-01 2.2222222387790680e-01</leafValues></_>
        <_>
          <internalNodes>
            0 -1 14 -3.6440216004848480e-02</internalNodes>
          <leafValues>
            -9.6726095676422119e-01 1.4353568851947784e-01</leafValues></_>
        <_>
          <internalNodes>
            0 -1 19 -9.0744137763977051e-02</internalNodes>
          <leafValues>
            1.5580686926841736e-01 -9.6422678232192993e-01</leafValues></_></weakClassifiers></_>
    <!-- stage 11 -->
    <_>
      <maxWeakCount>3</maxWeakCount>
      <stageThreshold>-9.3350720405578613e-01</stageThreshold>
      <weakClassifiers>
        <_>
          <internalNodes>
            0 -1 55 -8.5712894797325134e-03</internalNodes>
          <leafValues>
            1.1363636702299118e-01 -8.1920903921127319e-01</leafValues></_>
        <_>
          <internalNodes>
            0 -1 9 4.7422097995877266e-03</internalNodes>
          <leafValues>
            -6.3190376758575439e-01 5.0892657041549683e-01</leafValues></_>
        <_>
          <internalNodes>
            0 -1 6 -7.5236082077026367e-02</internalNodes>
          <leafValues>
            7.2939956188201904e-01 -4.1523984074592590e-01</leafValues></_></weakClassifiers></_>
    <!-- stage 12 -->
    <_>
      <maxWeakCount>5</maxWeakCount>
      <stageThreshold>-1.1311879158020020e+00</stageThreshold>
      <weakClassifiers>
        <_>
          <internalNodes>
            0 -1 48 -4.0173895657062531e-02</internalNodes>
          <leafValues>
            -1.1235955171287060e-02 -7.6136362552642822e-01</leafValues></_>
        <_>
          <internalNodes>
            0 -1 67 -8.2989986985921860e-03</internalNodes>
          <leafValues>
            1.9730587303638458e-01 -8.4211277961730957e-01</leafValues></_>
        <_>
          <internalNodes>
            0 -1 62 -4.9703093245625496e-03</internalNodes>
          <leafValues>
            3.3079323172569275e-01 -5.4442918300628662e-01</leafValues></_>
        <_>
          <internalNodes>
            0 -1 53 -6.7571420222520828e-03</internalNodes>
          <leafValues>
            -4.4882404804229736e-01 5.3828644752502441e-01</leafValues></_>
        <_>
          <internalNodes>
            0 -1 18 4.7378294169902802e-02</internalNodes>
          <leafValues>
            -2.7169635891914368e-01 7.6526069641113281e-01</leafValues></_></weakClassifiers></_>
    <!-- stage 13 -->
    <_>
      <maxWeakCount>5</maxWeakCount>
      <stageThreshold>-9.1310548782348633e-01</stageThreshold>
      <weakClassifiers>
        <_>
          <internalNodes>
            0 -1 27 -9.8663643002510071e-03</internalNodes>
          <leafValues>
            7.6470589637756348e-01 -5.9677422046661377e-01</leafValues></_>
        <_>
          <internalNodes>
            0 -1 42 -1.4526639878749847e-01</internalNodes>
          <leafValues>
            -9.1964292526245117e-01 1.2000963091850281e-01</leafValues></_>
        <_>
          <internalNodes>
            0 -1 68 -4.4733025133609772e-03</internalNodes>
          <leafValues>
            2.5143474340438843e-01 -7.8621166944503784e-01</leafValues></_>
        <_>
          <internalNodes>
            0 -1 47 -3.0980044603347778e-01</internalNodes>
          <leafValues>
            -6.9944471120834351e-01 2.4626359343528748e-01</leafValues></_>
        <_>
          <internalNodes>
            0 -1 30 -5.0709716975688934e-02</internalNodes>
          <leafValues>
            2.2933007776737213e-01 -9.3403929471969604e-01</leafValues></_></weakClassifiers></_>
    <!-- stage 14 -->
    <_>
      <maxWeakCount>6</maxWeakCount>
      <stageThreshold>-1.2187355756759644e+00</stageThreshold>
      <weakClassifiers>
        <_>
          <internalNodes>
            0 -1 34 -3.7807427346706390e-02</internalNodes>
          <leafValues>
            8.0000001192092896e-01 -6.1632651090621948e-01</leafValues></_>
        <_>
          <internalNodes>
            0 -1 26 2.0672656595706940e-02</internalNodes>
          <leafValues>
            -5.3581345081329346e-01 5.0607186555862427e-01</leafValues></_>
        <_>
          <internalNodes>
            0 -1 39 -5.4403860121965408e-04</internalNodes>
          <leafValues>
            2.4327841401100159e-01 -9.2599606513977051e-01</leafValues></_>
        <_>
          <internalNodes>
            0 -1 49 5.5703058023937047e-05</internalNodes>
          <leafValues>
            2.6396110653877258e-01 -7.6739186048507690e-01</leafValues></_>
        <_>
          <internalNodes>
            0 -1 24 -1.1154837906360626e-02</internalNodes>
          <leafValues>
            2.4648907780647278e-01 -8.1224143505096436e-01</leafValues></_>
        <_>
          <internalNodes>
            0 -1 4 -1.2964357156306505e-03</internalNodes>
          <leafValues>
            -6.9016808271408081e-01 2.3840622603893280e-01</leafValues></_></weakClassifiers></_>
    <!-- stage 15 -->
    <_>
      <maxWeakCount>4</maxWeakCount>
      <stageThreshold>-6.7856234312057495e-01</stageThreshold>
      <weakClassifiers>
        <_>
          <internalNodes>
            0 -1 32 1.0630613192915916e-02</internalNodes>
          <leafValues>
            -7.3262029886245728e-01 2.5641025975346565e-02</leafValues></_>
        <_>
          <internalNodes>
            0 -1 68 -4.1129486635327339e-03</internalNodes>
          <leafValues>
            7.7299743890762329e-02 -9.5212751626968384e-01</leafValues></_>
        <_>
          <internalNodes>
            0 -1 57 -9.8477359861135483e-03</internalNodes>
          <leafValues>
            -3.1396016478538513e-01 7.6424318552017212e-01</leafValues></_>
        <_>
          <internalNodes>
            0 -1 59 2.1253701299428940e-02</internalNodes>
          <leafValues>
            -4.6754291653633118e-01 4.4070538878440857e-01</leafValues></_></weakClassifiers></_>
    <!-- stage 16 -->
    <_>
      <maxWeakCount>6</maxWeakCount>
      <stageThreshold>-1.3354157209396362e+00</stageThreshold>
      <weakClassifiers>
        <_>
          <internalNodes>
            0 -1 46 8.4388284012675285e-03</internalNodes>
          <leafValues>
            -7.7108430862426758e-01 -7.0707067847251892e-02</leafValues></_>
        <_>
          <internalNodes>
            0 -1 17 -1.0798583738505840e-02</internalNodes>
          <leafValues>
            1.6686049103736877e-01 -8.2685714960098267e-01</leafValues></_>
        <_>
          <internalNodes>
            0 -1 1 -1.8802188336849213e-02</internalNodes>
          <leafValues>
            2.5343140959739685e-01 -6.7858862876892090e-01</leafValues></_>
        <_>
          <internalNodes>
            0 -1 64 -1.2188102118670940e-03</internalNodes>
          <leafValues>
            3.0286777019500732e-01 -8.0121827125549316e-01</leafValues></_>
        <_>
          <internalNodes>
            0 -1 63 -2.1375287906266749e-04</internalNodes>
          <leafValues>
            5.1227283477783203e-01 -4.2187449336051941e-01</leafValues></_>
        <_>
          <internalNodes>
            0 -1 35 -6.2526427209377289e-03</internalNodes>
          <leafValues>
            2.3846949636936188e-01 -8.0376726388931274e-01</leafValues></_></weakClassifiers></_>
    <!-- stage 17 -->
    <_>
      <maxWeakCount>7</maxWeakCount>
      <stageThreshold>-1.0293238162994385e+00</stageThreshold>
      <weakClassifiers>
        <_>
          <internalNodes>
            0 -1 10 -1.4668254181742668e-02</internalNodes>
          <leafValues>
            3.7142857909202576e-01 -6.4347827434539795e-01</leafValues></_>
        <_>
          <internalNodes>
            0 -1 21 1.5019919723272324e-02</internalNodes>
          <leafValues>
            -4.0870580077171326e-01 4.7529378533363342e-01</leafValues></_>
        <_>
          <internalNodes>
            0 -1 41 -1.7015397548675537e-02</internalNodes>
          <leafValues>
            -4.5673960447311401e-01 4.2441079020500183e-01</leafValues></_>
        <_>
          <internalNodes>
            0 -1 16 -4.0345519781112671e-01</internalNodes>
          <leafValues>
            2.0049840211868286e-01 -9.4847023487091064e-01</leafValues></_>
        <_>
          <internalNodes>
            0 -1 66 4.1455100290477276e-04</internalNodes>
          <leafValues>
            2.3870180547237396e-01 -7.1993327140808105e-01</leafValues></_>
        <_>
          <internalNodes>
            0 -1 60 2.5461462792009115e-04</internalNodes>
          <leafValues>
            -5.5411821603775024e-01 3.0138263106346130e-01</leafValues></_>
        <_>
          <internalNodes>
            0 -1 43 -2.3764291778206825e-02</internalNodes>
          <leafValues>
            8.6089396476745605e-01 -2.8663253784179688e-01</leafValues></_></weakClassifiers></_></stages>
  <features>
    <_>
      <rects>
        <_>
          0 0 1 24 -1.</_>
        <_>
          0 12 1 12 2.</_></rects>
      <tilted>0</tilted></_>
    <_>
      <rects>
        <_>
          0 1 6 22 -1.</_>
        <_>
          0 1 3 11 2.</_>
        <_>
          3 12 3 11 2.</_></rects>
      <tilted>0</tilted></_>
    <_>
      <rects>
        <_>
          0 1 24 8 -1.</_>
        <_>
          8 1 8 8 2.</_></rects>
      <tilted>0</tilted></_>
    <_>
      <rects>
        <_>
          0 9 3 9 -1.</_>
        <_>
          1 9 1 9 2.</_></rects>
      <tilted>0</tilted></_>
    <_>
      <rects>
        <_>
          0 10 1 12 -1.</_>
        <_>
          0 16 1 6 2.</_></rects>
      <tilted>0</tilted></_>
    <_>
      <rects>
        <_>
          0 10 4 12 -1.</_>
        <_>
          2 10 2 12 2.</_></rects>
      <tilted>0</tilted></_>
    <_>
      <rects>
        <_>
          0 12 18 11 -1.</_>
        <_>
          9 12 9 11 2.</_></rects>
      <tilted>0</tilted></_>
    <_>
      <rects>
        <_>
          0 15 4 9 -1.</_>
        <_>
          2 15 2 9 2.</_></rects>
      <tilted>0</tilted></_>
    <_>
      <rects>
        <_>
          0 16 10 8 -1.</_>
        <_>
          5 16 5 8 2.</_></rects>
      <tilted>0</tilted></_>
    <_>
      <rects>
        <_>
          0 22 16 2 -1.</_>
        <_>
          0 23 16 1 2.</_></rects>
      <tilted>0</tilted></_>
    <_>
      <rects>
        <_>
          1 2 10 4 -1.</_>
        <_>
          1 2 5 2 2.</_>
        <_>
          6 4 5 2 2.</_></rects>
      <tilted>0</tilted></_>
    <_>
      <rects>
        <_>
          1 3 20 21 -1.</_>
        <_>
          1 10 20 7 2.</_></rects>
      <tilted>0</tilted></_>
    <_>
      <rects>
        <_>
          1 5 17 12 -1.</_>
        <_>
          1 11 17 6 2.</_></rects>
      <tilted>0</tilted></_>
    <_>
      <rects>
        <_>
          1 8 16 15 -1.</_>
        <_>
          1 13 16 5 2.</_></rects>
      <tilted>0</tilted></_>
    <_>
      <rects>
        <_>
          1 12 14 5 -1.</_>
        <_>
          8 12 7 5 2.</_></rects>
      <tilted>0</tilted></_>
    <_>
      <rects>
        <_>
          1 22 15 2 -1.</_>
        <_>
          1 23 15 1 2.</_></rects>
      <tilted>0</tilted></_>
    <_>
      <rects>
        <_>
          2 2 21 12 -1.</_>
        <_>
          2 6 21 4 2.</_></rects>
      <tilted>0</tilted></_>
    <_>
      <rects>
        <_>
          3 8 9 6 -1.</_>
        <_>
          3 11 9 3 2.</_></rects>
      <tilted>0</tilted></_>
    <_>
      <rects>
        <_>
          3 19 16 4 -1.</_>
        <_>
          11 19 8 4 2.</_></rects>
      <tilted>0</tilted></_>
    <_>
      <rects>
        <_>
          4 2 15 3 -1.</_>
        <_>
          4 3 15 1 2.</_></rects>
      <tilted>0</tilted></_>
    <_>
      <rects>
        <_>
          4 10 3 6 -1.</_>
        <_>
          4 12 3 2 2.</_></rects>
      <tilted>0</tilted></_>
    <_>
      <rects>
        <_>
          5 0 10 6 -1.</_>
        <_>
          5 0 5 3 2.</_>
        <_>
          10 3 5 3 2.</_></rects>
      <tilted>0</tilted></_>
    <_>
      <rects>
        <_>
          5 3 13 9 -1.</_>
        <_>
          5 6 13 3 2.</_></rects>
      <tilted>0</tilted></_>
    <_>
      <rects>
        <_>
          5 3 18 12 -1.</_>
        <_>
          5 9 18 6 2.</_></rects>
      <tilted>0</tilted></_>
    <_>
      <rects>
        <_>
          5 5 15 4 -1.</_>
        <_>
          5 7 15 2 2.</_></rects>
      <tilted>0</tilted></_>
    <_>
      <rects>
        <_>
          5 18 18 5 -1.</_>
        <_>
          14 18 9 5 2.</_></rects>
      <tilted>0</tilted></_>
    <_>
      <rects>
        <_>
          5 21 16 2 -1.</_>
        <_>
          13 21 8 2 2.</_></rects>
      <tilted>0</tilted></_>
    <_>
      <rects>
        <_>
          5 22 12 2 -1.</_>
        <_>
          5 22 6 1 2.</_>
        <_>
          11 23 6 1 2.</_></rects>
      <tilted>0</tilted></_>
    <_>
      <rects>
        <_>
          6 1 14 22 -1.</_>
        <_>
          6 12 14 11 2.</_></rects>
      <tilted>0</tilted></_>
    <_>
      <rects>
        <_>
          6 1 15 18 -1.</_>
        <_>
          6 10 15 9 2.</_></rects>
      <tilted>0</tilted></_>
    <_>
      <rects>
        <_>
          6 8 15 10 -1.</_>
        <_>
          6 13 15 5 2.</_></rects>
      <tilted>0</tilted></_>
    <_>
      <rects>
        <_>
          6 15 12 3 -1.</_>
        <_>
          10 15 4 3 2.</_></rects>
      <tilted>0</tilted></_>
    <_>
      <rects>
        <_>
          7 0 13 2 -1.</_>
        <_>
          7 1 13 1 2.</_></rects>
      <tilted>0</tilted></_>
    <_>
      <rects>
        <_>
          7 0 16 2 -1.</_>
        <_>
          7 1 16 1 2.</_></rects>
      <tilted>0</tilted></_>
    <_>
      <rects>
        <_>
          7 1 12 3 -1.</_>
        <_>
          13 1 6 3 2.</_></rects>
      <tilted>0</tilted></_>
    <_>
      <rects>
        <_>
          7 6 2 8 -1.</_>
        <_>
          7 10 2 4 2.</_></rects>
      <tilted>0</tilted></_>
    <_>
      <rects>
        <_>
          7 10 3 1 -1.</_>
        <_>
          8 10 1 1 2.</_></rects>
      <tilted>0</tilted></_>
    <_>
      <rects>
        <_>
          7 18 8 3 -1.</_>
        <_>
          7 19 8 1 2.</_></rects>
      <tilted>0</tilted></_>
    <_>
      <rects>
        <_>
          8 4 9 6 -1.</_>
        <_>
          8 7 9 3 2.</_></rects>
      <tilted>0</tilted></_>
    <_>
      <rects>
        <_>
          8 8 13 2 -1.</_>
        <_>
          8 9 13 1 2.</_></rects>
      <tilted>0</tilted></_>
    <_>
      <rects>
        <_>
          8 11 1 8 -1.</_>
        <_>
          8 15 1 4 2.</_></rects>
      <tilted>0</tilted></_>
    <_>
      <rects>
        <_>
          8 15 3 6 -1.</_>
        <_>
          9 15 1 6 2.</_></rects>
      <tilted>0</tilted></_>
    <_>
      <rects>
        <_>
          8 17 12 7 -1.</_>
        <_>
          12 17 4 7 2.</_></rects>
      <tilted>0</tilted></_>
    <_>
      <rects>
        <_>
          8 17 14 7 -1.</_>
        <_>
          15 17 7 7 2.</_></rects>
      <tilted>0</tilted></_>
    <_>
      <rects>
        <_>
          9 13 12 4 -1.</_>
        <_>
          13 13 4 4 2.</_></rects>
      <tilted>0</tilted></_>
    <_>
      <rects>
        <_>
          9 20 7 4 -1.</_>
        <_>
          9 22 7 2 2.</_></rects>
      <tilted>0</tilted></_>
    <_>
      <rects>
        <_>
          10 13 14 3 -1.</_>
        <_>
          17 13 7 3 2.</_></rects>
      <tilted>0</tilted></_>
    <_>
      <rects>
        <_>
          11 0 13 12 -1.</_>
        <_>
          11 4 13 4 2.</_></rects>
      <tilted>0</tilted></_>
    <_>
      <rects>
        <_>
          11 2 7 8 -1.</_>
        <_>
          11 6 7 4 2.</_></rects>
      <tilted>0</tilted></_>
    <_>
      <rects>
        <_>
          11 16 2 4 -1.</_>
        <_>
          11 18 2 2 2.</_></rects>
      <tilted>0</tilted></_>
    <_>
      <rects>
        <_>
          11 18 3 5 -1.</_>
        <_>
          12 18 1 5 2.</_></rects>
      <tilted>0</tilted></_>
    <_>
      <rects>
        <_>
          11 20 8 4 -1.</_>
        <_>
          11 20 4 2 2.</_>
        <_>
          15 22 4 2 2.</_></rects>
      <tilted>0</tilted></_>
    <_>
      <rects>
        <_>
          12 18 12 4 -1.</_>
        <_>
          18 18 6 4 2.</_></rects>
      <tilted>0</tilted></_>
    <_>
      <rects>
        <_>
          12 22 6 1 -1.</_>
        <_>
          14 22 2 1 2.</_></rects>
      <tilted>0</tilted></_>
    <_>
      <rects>
        <_>
          14 0 3 2 -1.</_>
        <_>
          14 1 3 1 2.</_></rects>
      <tilted>0</tilted></_>
    <_>
      <rects>
        <_>
          14 3 10 2 -1.</_>
        <_>
          19 3 5 2 2.</_></rects>
      <tilted>0</tilted></_>
    <_>
      <rects>
        <_>
          14 14 10 8 -1.</_>
        <_>
          19 14 5 8 2.</_></rects>
      <tilted>0</tilted></_>
    <_>
      <rects>
        <_>
          15 19 3 4 -1.</_>
        <_>
          16 19 1 4 2.</_></rects>
      <tilted>0</tilted></_>
    <_>
      <rects>
        <_>
          17 7 5 2 -1.</_>
        <_>
          17 8 5 1 2.</_></rects>
      <tilted>0</tilted></_>
    <_>
      <rects>
        <_>
          17 14 7 8 -1.</_>
        <_>
          17 18 7 4 2.</_></rects>
      <tilted>0</tilted></_>
    <_>
      <rects>
        <_>
          17 15 2 4 -1.</_>
        <_>
          18 15 1 4 2.</_></rects>
      <tilted>0</tilted></_>
    <_>
      <rects>
        <_>
          18 3 6 18 -1.</_>
        <_>
          18 3 3 9 2.</_>
        <_>
          21 12 3 9 2.</_></rects>
      <tilted>0</tilted></_>
    <_>
      <rects>
        <_>
          19 4 1 8 -1.</_>
        <_>
          19 8 1 4 2.</_></rects>
      <tilted>0</tilted></_>
    <_>
      <rects>
        <_>
          19 18 2 2 -1.</_>
        <_>
          19 19 2 1 2.</_></rects>
      <tilted>0</tilted></_>
    <_>
      <rects>
        <_>
          20 7 1 8 -1.</_>
        <_>
          20 11 1 4 2.</_></rects>
      <tilted>0</tilted></_>
    <_>
      <rects>
        <_>
          20 10 4 13 -1.</_>
        <_>
          22 10 2 13 2.</_></rects>
      <tilted>0</tilted></_>
    <_>
      <rects>
        <_>
          21 20 2 4 -1.</_>
        <_>
          21 20 1 2 2.</_>
        <_>
          22 22 1 2 2.</_></rects>
      <tilted>0</tilted></_>
    <_>
      <rects>
        <_>
          23 17 1 6 -1.</_>
        <_>
          23 19 1 2 2.</_></rects>
      <tilted>0</tilted></_>
    <_>
      <rects>
        <_>
          23 19 1 3 -1.</_>
        <_>
          23 20 1 1 2.</_></rects>
      <tilted>0</tilted></_></features></cascade>
</opencv_storage>
